<?xml version="1.0"?>
<opencv_storage>
<stage9>
  <maxWeakCount>8</maxWeakCount>
  <stageThreshold>-1.0499433279037476e+00</stageThreshold>
  <weakClassifiers>
    <_>
      <internalNodes>
        0 -1 138313 2.0806377287954092e-03</internalNodes>
      <leafValues>
        -4.6596857905387878e-01 3.9024388790130615e-01</leafValues></_>
    <_>
      <internalNodes>
        0 -1 93130 -2.3229187354445457e-03</internalNodes>
      <leafValues>
        5.9899348020553589e-01 -2.8498533368110657e-01</leafValues></_>
    <_>
      <internalNodes>
        0 -1 131524 1.5446005854755640e-03</internalNodes>
      <leafValues>
        -2.7433171868324280e-01 6.4664763212203979e-01</leafValues></_>
    <_>
      <internalNodes>
        0 -1 25786 4.2636580474209040e-05</internalNodes>
      <leafValues>
        -2.9931056499481201e-01 4.9627771973609924e-01</leafValues></_>
    <_>
      <internalNodes>
        0 -1 68619 -4.4183962017996237e-05</internalNodes>
      <leafValues>
        5.4730534553527832e-01 -3.1579688191413879e-01</leafValues></_>
    <_>
      <internalNodes>
        0 -1 147727 -9.6628302708268166e-04</internalNodes>
      <leafValues>
        6.3028466701507568e-01 -2.7967315912246704e-01</leafValues></_>
    <_>
      <internalNodes>
        0 -1 66753 -1.1389186605811119e-02</internalNodes>
      <leafValues>
        -6.2529921531677246e-01 3.0800697207450867e-01</leafValues></_>
    <_>
      <internalNodes>
        0 -1 97614 -5.6573273614048958e-03</internalNodes>
      <leafValues>
        6.7893278598785400e-01 -3.0098623037338257e-01</leafValues></_></weakClassifiers></stage9>
</opencv_storage>
