<?xml version="1.0"?>
<opencv_storage>
<stage5>
  <maxWeakCount>6</maxWeakCount>
  <stageThreshold>-6.3180971145629883e-01</stageThreshold>
  <weakClassifiers>
    <_>
      <internalNodes>
        0 -1 125854 -6.8212701007723808e-03</internalNodes>
      <leafValues>
        6.4912283420562744e-01 -4.3518519401550293e-01</leafValues></_>
    <_>
      <internalNodes>
        0 -1 3199 3.1147734262049198e-03</internalNodes>
      <leafValues>
        -4.1398516297340393e-01 4.5202901959419250e-01</leafValues></_>
    <_>
      <internalNodes>
        0 -1 85441 7.9322159290313721e-03</internalNodes>
      <leafValues>
        -2.5149855017662048e-01 8.3046221733093262e-01</leafValues></_>
    <_>
      <internalNodes>
        0 -1 162334 -1.1126166209578514e-03</internalNodes>
      <leafValues>
        -4.6065926551818848e-01 4.0346857905387878e-01</leafValues></_>
    <_>
      <internalNodes>
        0 -1 135840 -2.0101917907595634e-03</internalNodes>
      <leafValues>
        4.8643743991851807e-01 -4.1763916611671448e-01</leafValues></_>
    <_>
      <internalNodes>
        0 -1 150427 3.4231248719152063e-05</internalNodes>
      <leafValues>
        -3.8298439979553223e-01 5.2193027734756470e-01</leafValues></_></weakClassifiers></stage5>
</opencv_storage>
