<?xml version="1.0"?>
<opencv_storage>
<stage2>
  <maxWeakCount>7</maxWeakCount>
  <stageThreshold>-1.1958143711090088e+00</stageThreshold>
  <weakClassifiers>
    <_>
      <internalNodes>
        0 -1 318 4.7359064221382141e-02</internalNodes>
      <leafValues>
        -6.2237763404846191e-01 2.4615384638309479e-01</leafValues></_>
    <_>
      <internalNodes>
        0 -1 2 -3.3598942682147026e-03</internalNodes>
      <leafValues>
        -8.3060663938522339e-01 2.4361100792884827e-01</leafValues></_>
    <_>
      <internalNodes>
        0 -1 156720 -1.8364187562838197e-03</internalNodes>
      <leafValues>
        3.9415019750595093e-01 -4.9563443660736084e-01</leafValues></_>
    <_>
      <internalNodes>
        0 -1 1817 -3.1451237737201154e-04</internalNodes>
      <leafValues>
        -8.9862614870071411e-01 2.7554726600646973e-01</leafValues></_>
    <_>
      <internalNodes>
        0 -1 11285 -2.6464041322469711e-02</internalNodes>
      <leafValues>
        6.3388139009475708e-01 -3.7189900875091553e-01</leafValues></_>
    <_>
      <internalNodes>
        0 -1 59902 -9.3889534473419189e-03</internalNodes>
      <leafValues>
        5.6864637136459351e-01 -4.3698400259017944e-01</leafValues></_>
    <_>
      <internalNodes>
        0 -1 8888 1.5301050152629614e-03</internalNodes>
      <leafValues>
        -5.5247414112091064e-01 4.1760864853858948e-01</leafValues></_></weakClassifiers></stage2>
</opencv_storage>
