<?xml version="1.0"?>
<opencv_storage>
<stage7>
  <maxWeakCount>6</maxWeakCount>
  <stageThreshold>-9.0737867355346680e-01</stageThreshold>
  <weakClassifiers>
    <_>
      <internalNodes>
        0 -1 94712 6.7871669307351112e-04</internalNodes>
      <leafValues>
        -4.6859902143478394e-01 6.0606062412261963e-01</leafValues></_>
    <_>
      <internalNodes>
        0 -1 49485 -1.4567906036973000e-03</internalNodes>
      <leafValues>
        8.6061668395996094e-01 -2.1389605104923248e-01</leafValues></_>
    <_>
      <internalNodes>
        0 -1 157116 2.4345640558749437e-03</internalNodes>
      <leafValues>
        -2.2027249634265900e-01 7.6615446805953979e-01</leafValues></_>
    <_>
      <internalNodes>
        0 -1 87446 -1.0007719974964857e-03</internalNodes>
      <leafValues>
        4.5449876785278320e-01 -4.1846928000450134e-01</leafValues></_>
    <_>
      <internalNodes>
        0 -1 160189 1.6384252812713385e-03</internalNodes>
      <leafValues>
        -1.9485177099704742e-01 8.2888478040695190e-01</leafValues></_>
    <_>
      <internalNodes>
        0 -1 157567 -1.8059404101222754e-04</internalNodes>
      <leafValues>
        6.1979055404663086e-01 -2.6425811648368835e-01</leafValues></_></weakClassifiers></stage7>
</opencv_storage>
