<?xml version="1.0"?>
<opencv_storage>
<stage13>
  <maxWeakCount>8</maxWeakCount>
  <stageThreshold>-1.3175913095474243e+00</stageThreshold>
  <weakClassifiers>
    <_>
      <internalNodes>
        0 -1 81637 -9.2325672507286072e-02</internalNodes>
      <leafValues>
        6.5789473056793213e-01 -5.4314720630645752e-01</leafValues></_>
    <_>
      <internalNodes>
        0 -1 161169 -5.2384263835847378e-04</internalNodes>
      <leafValues>
        -4.0175411105155945e-01 6.1364167928695679e-01</leafValues></_>
    <_>
      <internalNodes>
        0 -1 152466 -5.0660027191042900e-03</internalNodes>
      <leafValues>
        6.1050570011138916e-01 -3.3998191356658936e-01</leafValues></_>
    <_>
      <internalNodes>
        0 -1 13312 1.1179335415363312e-02</internalNodes>
      <leafValues>
        -1.7560984194278717e-01 8.7320762872695923e-01</leafValues></_>
    <_>
      <internalNodes>
        0 -1 69615 -1.5824157744646072e-03</internalNodes>
      <leafValues>
        -5.5009210109710693e-01 3.6406534910202026e-01</leafValues></_>
    <_>
      <internalNodes>
        0 -1 85334 5.0995969213545322e-03</internalNodes>
      <leafValues>
        -2.4035897850990295e-01 7.6672112941741943e-01</leafValues></_>
    <_>
      <internalNodes>
        0 -1 4138 7.3194117285311222e-03</internalNodes>
      <leafValues>
        -1.9973245263099670e-01 7.8742903470993042e-01</leafValues></_>
    <_>
      <internalNodes>
        0 -1 139061 -7.0740887895226479e-03</internalNodes>
      <leafValues>
        -9.4967710971832275e-01 2.1892789006233215e-01</leafValues></_></weakClassifiers></stage13>
</opencv_storage>
