<?xml version="1.0"?>
<opencv_storage>
<stage11>
  <maxWeakCount>11</maxWeakCount>
  <stageThreshold>-9.1823226213455200e-01</stageThreshold>
  <weakClassifiers>
    <_>
      <internalNodes>
        0 -1 83395 -4.9223065376281738e-02</internalNodes>
      <leafValues>
        7.6470589637756348e-01 -3.4728032350540161e-01</leafValues></_>
    <_>
      <internalNodes>
        0 -1 125583 3.3986799418926239e-02</internalNodes>
      <leafValues>
        -1.9502037763595581e-01 6.7939305305480957e-01</leafValues></_>
    <_>
      <internalNodes>
        0 -1 149570 -2.4189625401049852e-03</internalNodes>
      <leafValues>
        2.4705906212329865e-01 -5.7638663053512573e-01</leafValues></_>
    <_>
      <internalNodes>
        0 -1 67341 2.9502413235604763e-03</internalNodes>
      <leafValues>
        -2.5985726714134216e-01 5.1684927940368652e-01</leafValues></_>
    <_>
      <internalNodes>
        0 -1 95361 -1.8271524459123611e-02</internalNodes>
      <leafValues>
        4.3152260780334473e-01 -2.5878253579139709e-01</leafValues></_>
    <_>
      <internalNodes>
        0 -1 125810 2.9355068691074848e-03</internalNodes>
      <leafValues>
        -3.4200644493103027e-01 4.7300282120704651e-01</leafValues></_>
    <_>
      <internalNodes>
        0 -1 1588 5.8153674006462097e-02</internalNodes>
      <leafValues>
        -2.6593974232673645e-01 4.9022001028060913e-01</leafValues></_>
    <_>
      <internalNodes>
        0 -1 159606 -4.2823128751479089e-05</internalNodes>
      <leafValues>
        3.9878657460212708e-01 -4.0562334656715393e-01</leafValues></_>
    <_>
      <internalNodes>
        0 -1 162111 -8.4865484386682510e-03</internalNodes>
      <leafValues>
        -4.1864049434661865e-01 4.7318494319915771e-01</leafValues></_>
    <_>
      <internalNodes>
        0 -1 62870 -1.6201880061998963e-03</internalNodes>
      <leafValues>
        3.8827836513519287e-01 -4.0066078305244446e-01</leafValues></_>
    <_>
      <internalNodes>
        0 -1 86270 4.5536010293290019e-04</internalNodes>
      <leafValues>
        -2.5625586509704590e-01 6.8603360652923584e-01</leafValues></_></weakClassifiers></stage11>
</opencv_storage>
